<?xml version="1.0"?>
<MethodSetup Method="MLP::MLP">
  <GeneralInfo>
    <Info name="TMVA Release" value="4.2.1 [262657]"/>
    <Info name="ROOT Release" value="6.08/07 [395271]"/>
    <Info name="Creator" value="tawei"/>
    <Info name="Date" value="Thu Aug 17 17:09:02 2017"/>
    <Info name="Host" value="Linux vocms0302.cern.ch 2.6.32-696.1.1.el6.x86_64 #1 SMP Wed Apr 12 08:44:28 CEST 2017 x86_64 x86_64 x86_64 GNU/Linux"/>
    <Info name="Dir" value="/export/d00/scratch/tawei/HeavyFlavor/Run2Ana/BtoDAna/BtoDAnaPbPbRunII_20170817_sall_2side/TMVA_BtoD_MLP-10to15/myTMVA"/>
    <Info name="Training events" value="35624"/>
    <Info name="TrainingTime" value="9.00437269e+01"/>
    <Info name="AnalysisType" value="Classification"/>
  </GeneralInfo>
  <Options>
    <Option name="NCycles" modified="Yes">600</Option>
    <Option name="HiddenLayers" modified="Yes">N+5</Option>
    <Option name="NeuronType" modified="Yes">tanh</Option>
    <Option name="RandomSeed" modified="No">1</Option>
    <Option name="EstimatorType" modified="No">CE</Option>
    <Option name="NeuronInputType" modified="No">sum</Option>
    <Option name="V" modified="Yes">False</Option>
    <Option name="VerbosityLevel" modified="No">Default</Option>
    <Option name="VarTransform" modified="Yes">N</Option>
    <Option name="H" modified="Yes">True</Option>
    <Option name="CreateMVAPdfs" modified="No">False</Option>
    <Option name="IgnoreNegWeightsInTraining" modified="No">False</Option>
    <Option name="TrainingMethod" modified="No">BP</Option>
    <Option name="LearningRate" modified="No">2.000000e-02</Option>
    <Option name="DecayRate" modified="No">1.000000e-02</Option>
    <Option name="TestRate" modified="Yes">5</Option>
    <Option name="EpochMonitoring" modified="No">False</Option>
    <Option name="Sampling" modified="No">1.000000e+00</Option>
    <Option name="SamplingEpoch" modified="No">1.000000e+00</Option>
    <Option name="SamplingImportance" modified="No">1.000000e+00</Option>
    <Option name="SamplingTraining" modified="No">True</Option>
    <Option name="SamplingTesting" modified="No">False</Option>
    <Option name="ResetStep" modified="No">50</Option>
    <Option name="Tau" modified="No">3.000000e+00</Option>
    <Option name="BPMode" modified="No">sequential</Option>
    <Option name="BatchSize" modified="No">-1</Option>
    <Option name="ConvergenceImprove" modified="No">1.000000e-30</Option>
    <Option name="ConvergenceTests" modified="No">-1</Option>
    <Option name="UseRegulator" modified="Yes">False</Option>
    <Option name="UpdateLimit" modified="No">10000</Option>
    <Option name="CalculateErrors" modified="No">False</Option>
    <Option name="WeightRange" modified="No">1.000000e+00</Option>
  </Options>
  <Variables NVar="6">
    <Variable VarIndex="0" Expression="Dtrk1Pt" Label="Dtrk1Pt" Title="Dtrk1Pt" Unit="" Internal="Dtrk1Pt" Type="F" Min="5.00009239e-01" Max="1.35918036e+01"/>
    <Variable VarIndex="1" Expression="DRestrk1Pt" Label="DRestrk1Pt" Title="DRestrk1Pt" Unit="" Internal="DRestrk1Pt" Type="F" Min="5.00189424e-01" Max="1.45484419e+01"/>
    <Variable VarIndex="2" Expression="DRestrk2Pt" Label="DRestrk2Pt" Title="DRestrk2Pt" Unit="" Internal="DRestrk2Pt" Type="F" Min="5.00008225e-01" Max="1.38466682e+01"/>
    <Variable VarIndex="3" Expression="Dtrk1Dxy/Dtrk1D0Err" Label="Dtrk1Dxy/Dtrk1D0Err" Title="Dtrk1Dxy/Dtrk1D0Err" Unit="" Internal="Dtrk1Dxy_D_Dtrk1D0Err" Type="F" Min="-1.53101883e+02" Max="1.98283966e+02"/>
    <Variable VarIndex="4" Expression="DRestrk1Dxy/DRestrk1D0Err" Label="DRestrk1Dxy/DRestrk1D0Err" Title="DRestrk1Dxy/DRestrk1D0Err" Unit="" Internal="DRestrk1Dxy_D_DRestrk1D0Err" Type="F" Min="-1.02247154e+02" Max="1.32777481e+02"/>
    <Variable VarIndex="5" Expression="DRestrk2Dxy/DRestrk2D0Err" Label="DRestrk2Dxy/DRestrk2D0Err" Title="DRestrk2Dxy/DRestrk2D0Err" Unit="" Internal="DRestrk2Dxy_D_DRestrk2D0Err" Type="F" Min="-1.23568161e+02" Max="1.32028458e+02"/>
  </Variables>
  <Spectators NSpec="0"/>
  <Classes NClass="2">
    <Class Name="Signal" Index="0"/>
    <Class Name="Background" Index="1"/>
  </Classes>
  <Transformations NTransformations="1">
    <Transform Name="Normalize">
      <Selection>
        <Input NInputs="6">
          <Input Type="Variable" Label="Dtrk1Pt" Expression="Dtrk1Pt"/>
          <Input Type="Variable" Label="DRestrk1Pt" Expression="DRestrk1Pt"/>
          <Input Type="Variable" Label="DRestrk2Pt" Expression="DRestrk2Pt"/>
          <Input Type="Variable" Label="Dtrk1Dxy/Dtrk1D0Err" Expression="Dtrk1Dxy/Dtrk1D0Err"/>
          <Input Type="Variable" Label="DRestrk1Dxy/DRestrk1D0Err" Expression="DRestrk1Dxy/DRestrk1D0Err"/>
          <Input Type="Variable" Label="DRestrk2Dxy/DRestrk2D0Err" Expression="DRestrk2Dxy/DRestrk2D0Err"/>
        </Input>
        <Output NOutputs="6">
          <Output Type="Variable" Label="Dtrk1Pt" Expression="Dtrk1Pt"/>
          <Output Type="Variable" Label="DRestrk1Pt" Expression="DRestrk1Pt"/>
          <Output Type="Variable" Label="DRestrk2Pt" Expression="DRestrk2Pt"/>
          <Output Type="Variable" Label="Dtrk1Dxy/Dtrk1D0Err" Expression="Dtrk1Dxy/Dtrk1D0Err"/>
          <Output Type="Variable" Label="DRestrk1Dxy/DRestrk1D0Err" Expression="DRestrk1Dxy/DRestrk1D0Err"/>
          <Output Type="Variable" Label="DRestrk2Dxy/DRestrk2D0Err" Expression="DRestrk2Dxy/DRestrk2D0Err"/>
        </Output>
      </Selection>
      <Class ClassIndex="0">
        <Ranges>
          <Range Index="0" Min="5.0000923871994019e-01" Max="1.3485775947570801e+01"/>
          <Range Index="1" Min="5.0018942356109619e-01" Max="1.4053597450256348e+01"/>
          <Range Index="2" Min="5.0000846385955811e-01" Max="1.3846668243408203e+01"/>
          <Range Index="3" Min="-1.5310188293457031e+02" Max="1.9828396606445312e+02"/>
          <Range Index="4" Min="-1.0224715423583984e+02" Max="1.3277748107910156e+02"/>
          <Range Index="5" Min="-1.2356816101074219e+02" Max="1.3202845764160156e+02"/>
        </Ranges>
      </Class>
      <Class ClassIndex="1">
        <Ranges>
          <Range Index="0" Min="5.0005364418029785e-01" Max="1.3591803550720215e+01"/>
          <Range Index="1" Min="5.0022369623184204e-01" Max="1.4548441886901855e+01"/>
          <Range Index="2" Min="5.0000822544097900e-01" Max="1.3625962257385254e+01"/>
          <Range Index="3" Min="-8.2214187622070312e+01" Max="6.0377052307128906e+01"/>
          <Range Index="4" Min="-5.3526374816894531e+01" Max="3.3257270812988281e+01"/>
          <Range Index="5" Min="-4.9805274963378906e+01" Max="3.0771005630493164e+01"/>
        </Ranges>
      </Class>
      <Class ClassIndex="2">
        <Ranges>
          <Range Index="0" Min="5.0000923871994019e-01" Max="1.3591803550720215e+01"/>
          <Range Index="1" Min="5.0018942356109619e-01" Max="1.4548441886901855e+01"/>
          <Range Index="2" Min="5.0000822544097900e-01" Max="1.3846668243408203e+01"/>
          <Range Index="3" Min="-1.5310188293457031e+02" Max="1.9828396606445312e+02"/>
          <Range Index="4" Min="-1.0224715423583984e+02" Max="1.3277748107910156e+02"/>
          <Range Index="5" Min="-1.2356816101074219e+02" Max="1.3202845764160156e+02"/>
        </Ranges>
      </Class>
    </Transform>
  </Transformations>
  <MVAPdfs/>
  <Weights>
    <Layout NLayers="3">
      <Layer Index="0" NNeurons="7">
        <Neuron NSynapses="11">
          -9.4774630446660901e-01 -1.6577834991342871e-01 2.8000838618744410e+00 9.5499063892623735e+00 -3.3769927310555627e+00 1.8414780292749874e-01 -4.7476915786215318e-01 2.0000482362689196e+00 -2.1313980818321689e+00 -1.2078258078349491e+00 6.5064593017162831e-02 
        </Neuron>
        <Neuron NSynapses="11">
          -6.6865268353464975e+00 -1.2222378072001834e-01 -1.5297381500734468e+00 -4.2134261608508783e-01 8.2400222462992423e-01 -5.0052583704679833e-02 -4.6674032442815544e-01 -1.5920749020074645e+00 5.7167806756808073e+00 -6.2204434804277708e-01 -8.3973652795210157e-02 
        </Neuron>
        <Neuron NSynapses="11">
          -4.0162086428351074e-01 5.0922927402398059e-02 -1.0172787185626988e+00 -6.7103732981639741e-01 -1.3012390903307949e+00 -5.8958069133161088e-02 -3.5519260318877816e-01 -1.7403265146577322e+00 1.6183186333121045e+00 7.3784114823815150e+00 -1.4413746220283380e-01 
        </Neuron>
        <Neuron NSynapses="11">
          1.0083256218939113e-01 9.7370556368021131e+00 1.1229768957717918e+00 -1.6482563205474229e-01 1.1510858071279715e+00 -2.4315260847197007e-03 -9.0703255460124179e+00 2.2193432248313059e+00 -1.2644062690965567e+00 1.8406041137898472e+00 -4.4345019725895574e-01 
        </Neuron>
        <Neuron NSynapses="11">
          1.9473809151721075e+00 -9.1050918529096965e+00 8.4890711364398230e-01 -2.5401594113062513e+00 3.8146957613067203e+00 3.2466157102015408e+01 1.1204996596072446e+01 2.1877701286018727e+00 -7.0757958521193363e+00 -2.8694446721200499e+00 -3.6077441555083624e+01 
        </Neuron>
        <Neuron NSynapses="11">
          -5.8421553541235915e-01 -5.9239300402449011e+00 -2.5305544478346214e+00 1.8101268355956912e-01 -2.6348207469888241e-01 -3.4105174070508397e+01 8.0283384717203052e+00 2.4059067010326124e-01 4.6394591551096891e+00 2.3134173988388196e+00 3.7743669604285046e+01 
        </Neuron>
        <Neuron NSynapses="11">
          -7.0356898083767208e+00 2.8990959580266157e-01 1.2803251535098124e+00 8.7366627820602005e+00 -3.8066600913001620e+00 3.5675335919737452e+00 4.8841739156948499e-01 -3.3628366195110657e+00 5.8928000303024506e+00 5.7478817893883107e+00 -2.9802856507900661e+00 
        </Neuron>
      </Layer>
      <Layer Index="1" NNeurons="12">
        <Neuron NSynapses="1">
          -2.2264648085703076e+00 
        </Neuron>
        <Neuron NSynapses="1">
          -6.0575505817647208e+00 
        </Neuron>
        <Neuron NSynapses="1">
          1.3073390504440869e+00 
        </Neuron>
        <Neuron NSynapses="1">
          1.7810144807359984e+00 
        </Neuron>
        <Neuron NSynapses="1">
          -1.0513495160060677e+00 
        </Neuron>
        <Neuron NSynapses="1">
          -5.4574387403621660e+00 
        </Neuron>
        <Neuron NSynapses="1">
          -5.5895609081199096e+00 
        </Neuron>
        <Neuron NSynapses="1">
          -9.8408558535332746e-01 
        </Neuron>
        <Neuron NSynapses="1">
          5.6544652935154771e-01 
        </Neuron>
        <Neuron NSynapses="1">
          9.5285353637680081e-01 
        </Neuron>
        <Neuron NSynapses="1">
          -5.4829546833296314e+00 
        </Neuron>
        <Neuron NSynapses="1">
          3.1600390238618496e+00 
        </Neuron>
      </Layer>
      <Layer Index="2" NNeurons="1">
        <Neuron NSynapses="0"/>
      </Layer>
    </Layout>
  </Weights>
</MethodSetup>
